<?xml version="1.0"?>
<opencv_storage>
<cascade>
  <stageType>BOOST</stageType>
  <featureType>HAAR</featureType>
  <height>32</height>
  <width>32</width>
  <stageParams>
    <boostType>GAB</boostType>
    <minHitRate>9.9500000476837158e-01</minHitRate>
    <maxFalseAlarm>5.0000000000000000e-01</maxFalseAlarm>
    <weightTrimRate>9.4999998807907104e-01</weightTrimRate>
    <maxDepth>1</maxDepth>
    <maxWeakCount>100</maxWeakCount></stageParams>
  <featureParams>
    <maxCatCount>0</maxCatCount>
    <featSize>1</featSize>
    <mode>BASIC</mode></featureParams>
  <stageNum>15</stageNum>
  <stages>
    <!-- stage 0 -->
    <_>
      <maxWeakCount>5</maxWeakCount>
      <stageThreshold>-1.9584385156631470e+00</stageThreshold>
      <weakClassifiers>
        <_>
          <internalNodes>
            0 -1 28 3.7027440965175629e-02</internalNodes>
          <leafValues>
            -8.9575290679931641e-01 5.6097561120986938e-01</leafValues></_>
        <_>
          <internalNodes>
            0 -1 59 2.5602580979466438e-02</internalNodes>
          <leafValues>
            -8.8909226655960083e-01 3.5874679684638977e-01</leafValues></_>
        <_>
          <internalNodes>
            0 -1 87 9.2100512119941413e-05</internalNodes>
          <leafValues>
            3.0267903208732605e-01 -8.4157246351242065e-01</leafValues></_>
        <_>
          <internalNodes>
            0 -1 41 -2.7588639408349991e-02</internalNodes>
          <leafValues>
            3.2747489213943481e-01 -8.0535286664962769e-01</leafValues></_>
        <_>
          <internalNodes>
            0 -1 18 5.1698223687708378e-03</internalNodes>
          <leafValues>
            -7.8924584388732910e-01 3.4050422906875610e-01</leafValues></_></weakClassifiers></_>
    <!-- stage 1 -->
    <_>
      <maxWeakCount>5</maxWeakCount>
      <stageThreshold>-2.2777245044708252e+00</stageThreshold>
      <weakClassifiers>
        <_>
          <internalNodes>
            0 -1 45 6.3405185937881470e-02</internalNodes>
          <leafValues>
            -8.8468807935714722e-01 8.9999997615814209e-01</leafValues></_>
        <_>
          <internalNodes>
            0 -1 33 -6.9666504859924316e-02</internalNodes>
          <leafValues>
            9.5827901363372803e-01 -6.4671552181243896e-01</leafValues></_>
        <_>
          <internalNodes>
            0 -1 66 -3.4475193824619055e-03</internalNodes>
          <leafValues>
            5.5346059799194336e-01 -5.2943176031112671e-01</leafValues></_>
        <_>
          <internalNodes>
            0 -1 70 -2.0077079534530640e-03</internalNodes>
          <leafValues>
            3.9414396882057190e-01 -7.4854969978332520e-01</leafValues></_>
        <_>
          <internalNodes>
            0 -1 93 -5.2485404012259096e-05</internalNodes>
          <leafValues>
            3.4126058220863342e-01 -6.1103314161300659e-01</leafValues></_></weakClassifiers></_>
    <!-- stage 2 -->
    <_>
      <maxWeakCount>6</maxWeakCount>
      <stageThreshold>-1.5121319293975830e+00</stageThreshold>
      <weakClassifiers>
        <_>
          <internalNodes>
            0 -1 34 1.3630479574203491e-01</internalNodes>
          <leafValues>
            -8.7689393758773804e-01 7.0967739820480347e-01</leafValues></_>
        <_>
          <internalNodes>
            0 -1 78 2.7070862415712327e-05</internalNodes>
          <leafValues>
            -6.6669148206710815e-01 4.0600126981735229e-01</leafValues></_>
        <_>
          <internalNodes>
            0 -1 84 2.8583046514540911e-05</internalNodes>
          <leafValues>
            -6.8512719869613647e-01 3.4223011136054993e-01</leafValues></_>
        <_>
          <internalNodes>
            0 -1 52 1.8177153542637825e-03</internalNodes>
          <leafValues>
            -8.1647694110870361e-01 3.1292402744293213e-01</leafValues></_>
        <_>
          <internalNodes>
            0 -1 23 -1.2486695311963558e-02</internalNodes>
          <leafValues>
            3.0430704355239868e-01 -8.3942335844039917e-01</leafValues></_>
        <_>
          <internalNodes>
            0 -1 75 1.3476067579176743e-05</internalNodes>
          <leafValues>
            -8.0656480789184570e-01 2.7243101596832275e-01</leafValues></_></weakClassifiers></_>
    <!-- stage 3 -->
    <_>
      <maxWeakCount>4</maxWeakCount>
      <stageThreshold>-1.7509895563125610e+00</stageThreshold>
      <weakClassifiers>
        <_>
          <internalNodes>
            0 -1 48 -6.4596490119583905e-05</internalNodes>
          <leafValues>
            -2.0361991226673126e-01 -9.3311035633087158e-01</leafValues></_>
        <_>
          <internalNodes>
            0 -1 91 -2.3402055376209319e-05</internalNodes>
          <leafValues>
            3.0471882224082947e-01 -7.8719592094421387e-01</leafValues></_>
        <_>
          <internalNodes>
            0 -1 61 2.1581425244221464e-05</internalNodes>
          <leafValues>
            -5.8207577466964722e-01 4.1009199619293213e-01</leafValues></_>
        <_>
          <internalNodes>
            0 -1 82 2.1345549612306058e-05</internalNodes>
          <leafValues>
            -4.4077521562576294e-01 6.1790537834167480e-01</leafValues></_></weakClassifiers></_>
    <!-- stage 4 -->
    <_>
      <maxWeakCount>6</maxWeakCount>
      <stageThreshold>-1.6236690282821655e+00</stageThreshold>
      <weakClassifiers>
        <_>
          <internalNodes>
            0 -1 38 1.4927899837493896e-01</internalNodes>
          <leafValues>
            -8.6239397525787354e-01 5.7894736528396606e-01</leafValues></_>
        <_>
          <internalNodes>
            0 -1 35 -5.7013802230358124e-02</internalNodes>
          <leafValues>
            7.7255964279174805e-01 -5.1238900423049927e-01</leafValues></_>
        <_>
          <internalNodes>
            0 -1 71 -1.1598633602261543e-02</internalNodes>
          <leafValues>
            2.8533214330673218e-01 -6.5722912549972534e-01</leafValues></_>
        <_>
          <internalNodes>
            0 -1 0 5.2291252359282225e-05</internalNodes>
          <leafValues>
            -4.6304771304130554e-01 4.2605823278427124e-01</leafValues></_>
        <_>
          <internalNodes>
            0 -1 2 9.4011634588241577e-02</internalNodes>
          <leafValues>
            -4.6377912163734436e-01 3.9827254414558411e-01</leafValues></_>
        <_>
          <internalNodes>
            0 -1 72 9.4549715868197381e-05</internalNodes>
          <leafValues>
            -4.1598767042160034e-01 4.1040211915969849e-01</leafValues></_></weakClassifiers></_>
    <!-- stage 5 -->
    <_>
      <maxWeakCount>5</maxWeakCount>
      <stageThreshold>-1.3186008930206299e+00</stageThreshold>
      <weakClassifiers>
        <_>
          <internalNodes>
            0 -1 31 1.5731923282146454e-01</internalNodes>
          <leafValues>
            -8.5794395208358765e-01 7.5000000000000000e-01</leafValues></_>
        <_>
          <internalNodes>
            0 -1 29 -1.0297617316246033e-01</internalNodes>
          <leafValues>
            1. -4.8163872957229614e-01</leafValues></_>
        <_>
          <internalNodes>
            0 -1 14 3.7923224270343781e-02</internalNodes>
          <leafValues>
            -6.1988633871078491e-01 4.0456345677375793e-01</leafValues></_>
        <_>
          <internalNodes>
            0 -1 16 -2.2020943462848663e-02</internalNodes>
          <leafValues>
            3.3681902289390564e-01 -6.0412150621414185e-01</leafValues></_>
        <_>
          <internalNodes>
            0 -1 42 -4.5365188270807266e-03</internalNodes>
          <leafValues>
            -6.3713151216506958e-01 3.0404910445213318e-01</leafValues></_></weakClassifiers></_>
    <!-- stage 6 -->
    <_>
      <maxWeakCount>5</maxWeakCount>
      <stageThreshold>-1.5125499963760376e+00</stageThreshold>
      <weakClassifiers>
        <_>
          <internalNodes>
            0 -1 20 2.0449239015579224e-01</internalNodes>
          <leafValues>
            -8.5013878345489502e-01 1.</leafValues></_>
        <_>
          <internalNodes>
            0 -1 60 1.1305278167128563e-02</internalNodes>
          <leafValues>
            -8.8935708999633789e-01 -3.3354513347148895e-02</leafValues></_>
        <_>
          <internalNodes>
            0 -1 30 -1.6857311129570007e-03</internalNodes>
          <leafValues>
            4.4492483139038086e-01 -4.0818023681640625e-01</leafValues></_>
        <_>
          <internalNodes>
            0 -1 49 -1.2478704564273357e-02</internalNodes>
          <leafValues>
            8.0116045475006104e-01 -2.5471520423889160e-01</leafValues></_>
        <_>
          <internalNodes>
            0 -1 25 3.9909555925987661e-04</internalNodes>
          <leafValues>
            -8.1926631927490234e-01 2.6458668708801270e-01</leafValues></_></weakClassifiers></_>
    <!-- stage 7 -->
    <_>
      <maxWeakCount>6</maxWeakCount>
      <stageThreshold>-1.5725877285003662e+00</stageThreshold>
      <weakClassifiers>
        <_>
          <internalNodes>
            0 -1 26 2.6625964045524597e-01</internalNodes>
          <leafValues>
            -8.4317344427108765e-01 9.4117647409439087e-01</leafValues></_>
        <_>
          <internalNodes>
            0 -1 37 -1.5575464814901352e-02</internalNodes>
          <leafValues>
            8.1766319274902344e-01 -5.0144064426422119e-01</leafValues></_>
        <_>
          <internalNodes>
            0 -1 90 -1.7488136887550354e-02</internalNodes>
          <leafValues>
            4.8798286914825439e-01 -3.7436738610267639e-01</leafValues></_>
        <_>
          <internalNodes>
            0 -1 46 4.3791942298412323e-02</internalNodes>
          <leafValues>
            -3.0527997016906738e-01 6.8963825702667236e-01</leafValues></_>
        <_>
          <internalNodes>
            0 -1 5 -1.1221773922443390e-01</internalNodes>
          <leafValues>
            -9.5339107513427734e-01 2.2334942221641541e-01</leafValues></_>
        <_>
          <internalNodes>
            0 -1 67 -9.1831553727388382e-03</internalNodes>
          <leafValues>
            3.2662910223007202e-01 -6.3402599096298218e-01</leafValues></_></weakClassifiers></_>
    <!-- stage 8 -->
    <_>
      <maxWeakCount>6</maxWeakCount>
      <stageThreshold>-1.5539672374725342e+00</stageThreshold>
      <weakClassifiers>
        <_>
          <internalNodes>
            0 -1 27 2.6894515752792358e-01</internalNodes>
          <leafValues>
            -8.4401112794876099e-01 6.5853661298751831e-01</leafValues></_>
        <_>
          <internalNodes>
            0 -1 7 2.3089213296771049e-02</internalNodes>
          <leafValues>
            -1.9249886274337769e-02 -7.9482924938201904e-01</leafValues></_>
        <_>
          <internalNodes>
            0 -1 3 -1.6670466720825061e-05</internalNodes>
          <leafValues>
            -5.7231467962265015e-01 2.3197145760059357e-01</leafValues></_>
        <_>
          <internalNodes>
            0 -1 86 -9.7416632343083620e-04</internalNodes>
          <leafValues>
            -5.6287521123886108e-01 2.2864069044589996e-01</leafValues></_>
        <_>
          <internalNodes>
            0 -1 73 -2.3920314386487007e-02</internalNodes>
          <leafValues>
            7.6041913032531738e-01 -2.0450130105018616e-01</leafValues></_>
        <_>
          <internalNodes>
            0 -1 39 -6.3439840450882912e-03</internalNodes>
          <leafValues>
            7.9777520895004272e-01 -1.4253097772598267e-01</leafValues></_></weakClassifiers></_>
    <!-- stage 9 -->
    <_>
      <maxWeakCount>6</maxWeakCount>
      <stageThreshold>-1.7251727581024170e+00</stageThreshold>
      <weakClassifiers>
        <_>
          <internalNodes>
            0 -1 21 3.7248253822326660e-02</internalNodes>
          <leafValues>
            -8.3256667852401733e-01 7.4193549156188965e-01</leafValues></_>
        <_>
          <internalNodes>
            0 -1 68 -2.3161717690527439e-03</internalNodes>
          <leafValues>
            5.6178390979766846e-02 -8.0790895223617554e-01</leafValues></_>
        <_>
          <internalNodes>
            0 -1 85 5.0233351066708565e-04</internalNodes>
          <leafValues>
            1.1771471798419952e-01 -7.5371402502059937e-01</leafValues></_>
        <_>
          <internalNodes>
            0 -1 24 -4.6145664528012276e-03</internalNodes>
          <leafValues>
            1.8910261988639832e-01 -6.0818964242935181e-01</leafValues></_>
        <_>
          <internalNodes>
            0 -1 65 -3.5404664231464267e-04</internalNodes>
          <leafValues>
            -8.7728941440582275e-01 1.7870326340198517e-01</leafValues></_>
        <_>
          <internalNodes>
            0 -1 65 1.9960963982157409e-04</internalNodes>
          <leafValues>
            2.2707454860210419e-01 -5.3093874454498291e-01</leafValues></_></weakClassifiers></_>
    <!-- stage 10 -->
    <_>
      <maxWeakCount>8</maxWeakCount>
      <stageThreshold>-1.5665690898895264e+00</stageThreshold>
      <weakClassifiers>
        <_>
          <internalNodes>
            0 -1 32 -2.3918600752949715e-02</internalNodes>
          <leafValues>
            6.0000002384185791e-01 -8.4715747833251953e-01</leafValues></_>
        <_>
          <internalNodes>
            0 -1 44 -9.1478660702705383e-02</internalNodes>
          <leafValues>
            1. -4.4719532132148743e-01</leafValues></_>
        <_>
          <internalNodes>
            0 -1 50 3.9393086917698383e-03</internalNodes>
          <leafValues>
            -5.4645425081253052e-01 2.9555720090866089e-01</leafValues></_>
        <_>
          <internalNodes>
            0 -1 88 6.7799480166286230e-04</internalNodes>
          <leafValues>
            2.3670370876789093e-01 -5.7366949319839478e-01</leafValues></_>
        <_>
          <internalNodes>
            0 -1 43 2.6031117886304855e-02</internalNodes>
          <leafValues>
            -1.9322770833969116e-01 6.3244986534118652e-01</leafValues></_>
        <_>
          <internalNodes>
            0 -1 83 -8.4441620856523514e-03</internalNodes>
          <leafValues>
            -7.8197985887527466e-01 1.8483036756515503e-01</leafValues></_>
        <_>
          <internalNodes>
            0 -1 10 3.3189728856086731e-02</internalNodes>
          <leafValues>
            -2.0038868486881256e-01 7.9464906454086304e-01</leafValues></_>
        <_>
          <internalNodes>
            0 -1 77 1.7001535161398351e-04</internalNodes>
          <leafValues>
            -3.9046397805213928e-01 4.3853339552879333e-01</leafValues></_></weakClassifiers></_>
    <!-- stage 11 -->
    <_>
      <maxWeakCount>8</maxWeakCount>
      <stageThreshold>-1.7145383358001709e+00</stageThreshold>
      <weakClassifiers>
        <_>
          <internalNodes>
            0 -1 79 -2.4275820702314377e-02</internalNodes>
          <leafValues>
            4.7619047760963440e-01 -8.3828997611999512e-01</leafValues></_>
        <_>
          <internalNodes>
            0 -1 81 7.3926108889281750e-03</internalNodes>
          <leafValues>
            -4.5293930172920227e-01 5.8851909637451172e-01</leafValues></_>
        <_>
          <internalNodes>
            0 -1 9 -7.1827541105449200e-03</internalNodes>
          <leafValues>
            2.4798268079757690e-01 -5.8544552326202393e-01</leafValues></_>
        <_>
          <internalNodes>
            0 -1 56 -1.7154477536678314e-03</internalNodes>
          <leafValues>
            -8.1832093000411987e-01 1.3597434759140015e-01</leafValues></_>
        <_>
          <internalNodes>
            0 -1 6 2.9889220604673028e-04</internalNodes>
          <leafValues>
            -4.0132290124893188e-01 3.3540165424346924e-01</leafValues></_>
        <_>
          <internalNodes>
            0 -1 74 -5.3589958697557449e-03</internalNodes>
          <leafValues>
            -6.5486836433410645e-01 2.0029023289680481e-01</leafValues></_>
        <_>
          <internalNodes>
            0 -1 89 8.5982728705857880e-06</internalNodes>
          <leafValues>
            -4.5240116119384766e-01 2.9388839006423950e-01</leafValues></_>
        <_>
          <internalNodes>
            0 -1 51 -8.4200606215745211e-04</internalNodes>
          <leafValues>
            -7.9321354627609253e-01 1.5087713301181793e-01</leafValues></_></weakClassifiers></_>
    <!-- stage 12 -->
    <_>
      <maxWeakCount>9</maxWeakCount>
      <stageThreshold>-1.3607435226440430e+00</stageThreshold>
      <weakClassifiers>
        <_>
          <internalNodes>
            0 -1 17 5.2122855186462402e-01</internalNodes>
          <leafValues>
            -8.2116788625717163e-01 8.1818181276321411e-01</leafValues></_>
        <_>
          <internalNodes>
            0 -1 53 -3.9557725191116333e-02</internalNodes>
          <leafValues>
            8.1591761112213135e-01 -4.0937763452529907e-01</leafValues></_>
        <_>
          <internalNodes>
            0 -1 11 6.6823616623878479e-02</internalNodes>
          <leafValues>
            1.3547936081886292e-01 -9.0104717016220093e-01</leafValues></_>
        <_>
          <internalNodes>
            0 -1 76 1.8688314594328403e-03</internalNodes>
          <leafValues>
            -6.6002523899078369e-01 1.5080778300762177e-01</leafValues></_>
        <_>
          <internalNodes>
            0 -1 47 4.2907308787107468e-02</internalNodes>
          <leafValues>
            -2.8415280580520630e-01 4.6272304654121399e-01</leafValues></_>
        <_>
          <internalNodes>
            0 -1 92 -9.4316881150007248e-03</internalNodes>
          <leafValues>
            5.8152323961257935e-01 -1.9491091370582581e-01</leafValues></_>
        <_>
          <internalNodes>
            0 -1 62 5.4148398339748383e-04</internalNodes>
          <leafValues>
            1.6389253735542297e-01 -7.4757784605026245e-01</leafValues></_>
        <_>
          <internalNodes>
            0 -1 40 -8.8854646310210228e-04</internalNodes>
          <leafValues>
            5.5078011751174927e-01 -2.4408215284347534e-01</leafValues></_>
        <_>
          <internalNodes>
            0 -1 1 2.2208518930710852e-04</internalNodes>
          <leafValues>
            -4.2092868685722351e-01 2.7780449390411377e-01</leafValues></_></weakClassifiers></_>
    <!-- stage 13 -->
    <_>
      <maxWeakCount>8</maxWeakCount>
      <stageThreshold>-1.7607752084732056e+00</stageThreshold>
      <weakClassifiers>
        <_>
          <internalNodes>
            0 -1 80 -3.2322291284799576e-02</internalNodes>
          <leafValues>
            4.8571428656578064e-01 -8.3010154962539673e-01</leafValues></_>
        <_>
          <internalNodes>
            0 -1 55 2.2999983048066497e-04</internalNodes>
          <leafValues>
            -5.3413188457489014e-01 2.3947019875049591e-01</leafValues></_>
        <_>
          <internalNodes>
            0 -1 63 -3.0310344882309437e-03</internalNodes>
          <leafValues>
            1.4605496823787689e-01 -7.8417283296585083e-01</leafValues></_>
        <_>
          <internalNodes>
            0 -1 64 1.1489873286336660e-03</internalNodes>
          <leafValues>
            1.7135021090507507e-01 -7.6134848594665527e-01</leafValues></_>
        <_>
          <internalNodes>
            0 -1 12 -7.9707286204211414e-05</internalNodes>
          <leafValues>
            -5.9690636396408081e-01 1.3888196647167206e-01</leafValues></_>
        <_>
          <internalNodes>
            0 -1 19 9.6596835646778345e-05</internalNodes>
          <leafValues>
            2.3502488434314728e-01 -4.9357736110687256e-01</leafValues></_>
        <_>
          <internalNodes>
            0 -1 4 -6.8853644188493490e-04</internalNodes>
          <leafValues>
            3.2806003093719482e-01 -4.0117615461349487e-01</leafValues></_>
        <_>
          <internalNodes>
            0 -1 8 6.8529896438121796e-02</internalNodes>
          <leafValues>
            -3.2658940553665161e-01 4.4067850708961487e-01</leafValues></_></weakClassifiers></_>
    <!-- stage 14 -->
    <_>
      <maxWeakCount>8</maxWeakCount>
      <stageThreshold>-1.9660868644714355e+00</stageThreshold>
      <weakClassifiers>
        <_>
          <internalNodes>
            0 -1 58 -2.5181206874549389e-03</internalNodes>
          <leafValues>
            2.6315790414810181e-01 -8.2592594623565674e-01</leafValues></_>
        <_>
          <internalNodes>
            0 -1 36 -4.6286560595035553e-02</internalNodes>
          <leafValues>
            5.7695168256759644e-01 -4.2346045374870300e-01</leafValues></_>
        <_>
          <internalNodes>
            0 -1 54 -2.0395133105921559e-05</internalNodes>
          <leafValues>
            3.3955013751983643e-01 -3.8684502243995667e-01</leafValues></_>
        <_>
          <internalNodes>
            0 -1 22 2.0953514613211155e-03</internalNodes>
          <leafValues>
            1.7968155443668365e-01 -7.7168858051300049e-01</leafValues></_>
        <_>
          <internalNodes>
            0 -1 15 2.1389063447713852e-02</internalNodes>
          <leafValues>
            -4.3525415658950806e-01 2.8882631659507751e-01</leafValues></_>
        <_>
          <internalNodes>
            0 -1 13 2.2940961644053459e-03</internalNodes>
          <leafValues>
            -2.0130147039890289e-01 6.7400956153869629e-01</leafValues></_>
        <_>
          <internalNodes>
            0 -1 69 -4.4129351153969765e-03</internalNodes>
          <leafValues>
            2.7931678295135498e-01 -4.5653098821640015e-01</leafValues></_>
        <_>
          <internalNodes>
            0 -1 57 4.7209756448864937e-03</internalNodes>
          <leafValues>
            -2.9176139831542969e-01 4.4932293891906738e-01</leafValues></_></weakClassifiers></_></stages>
  <features>
    <_>
      <rects>
        <_>
          0 4 2 2 -1.</_>
        <_>
          1 4 1 2 2.</_></rects>
      <tilted>0</tilted></_>
    <_>
      <rects>
        <_>
          0 5 2 10 -1.</_>
        <_>
          1 5 1 10 2.</_></rects>
      <tilted>0</tilted></_>
    <_>
      <rects>
        <_>
          0 13 27 13 -1.</_>
        <_>
          9 13 9 13 3.</_></rects>
      <tilted>0</tilted></_>
    <_>
      <rects>
        <_>
          0 14 9 10 -1.</_>
        <_>
          3 14 3 10 3.</_></rects>
      <tilted>0</tilted></_>
    <_>
      <rects>
        <_>
          0 27 8 4 -1.</_>
        <_>
          0 29 8 2 2.</_></rects>
      <tilted>0</tilted></_>
    <_>
      <rects>
        <_>
          1 4 28 26 -1.</_>
        <_>
          1 4 14 13 2.</_>
        <_>
          15 17 14 13 2.</_></rects>
      <tilted>0</tilted></_>
    <_>
      <rects>
        <_>
          3 3 4 6 -1.</_>
        <_>
          5 3 2 6 2.</_></rects>
      <tilted>0</tilted></_>
    <_>
      <rects>
        <_>
          3 6 26 16 -1.</_>
        <_>
          3 6 13 8 2.</_>
        <_>
          16 14 13 8 2.</_></rects>
      <tilted>0</tilted></_>
    <_>
      <rects>
        <_>
          3 13 16 14 -1.</_>
        <_>
          11 13 8 14 2.</_></rects>
      <tilted>0</tilted></_>
    <_>
      <rects>
        <_>
          3 14 18 10 -1.</_>
        <_>
          3 14 9 5 2.</_>
        <_>
          12 19 9 5 2.</_></rects>
      <tilted>0</tilted></_>
    <_>
      <rects>
        <_>
          4 7 4 12 -1.</_>
        <_>
          4 13 4 6 2.</_></rects>
      <tilted>0</tilted></_>
    <_>
      <rects>
        <_>
          4 10 24 8 -1.</_>
        <_>
          16 10 12 8 2.</_></rects>
      <tilted>0</tilted></_>
    <_>
      <rects>
        <_>
          5 22 2 3 -1.</_>
        <_>
          5 23 2 1 3.</_></rects>
      <tilted>0</tilted></_>
    <_>
      <rects>
        <_>
          5 30 14 2 -1.</_>
        <_>
          5 30 7 1 2.</_>
        <_>
          12 31 7 1 2.</_></rects>
      <tilted>0</tilted></_>
    <_>
      <rects>
        <_>
          6 14 24 5 -1.</_>
        <_>
          14 14 8 5 3.</_></rects>
      <tilted>0</tilted></_>
    <_>
      <rects>
        <_>
          7 15 24 3 -1.</_>
        <_>
          15 15 8 3 3.</_></rects>
      <tilted>0</tilted></_>
    <_>
      <rects>
        <_>
          8 1 22 30 -1.</_>
        <_>
          8 16 22 15 2.</_></rects>
      <tilted>0</tilted></_>
    <_>
      <rects>
        <_>
          8 6 15 25 -1.</_>
        <_>
          13 6 5 25 3.</_></rects>
      <tilted>0</tilted></_>
    <_>
      <rects>
        <_>
          8 7 10 10 -1.</_>
        <_>
          8 7 5 5 2.</_>
        <_>
          13 12 5 5 2.</_></rects>
      <tilted>0</tilted></_>
    <_>
      <rects>
        <_>
          9 10 2 2 -1.</_>
        <_>
          9 11 2 1 2.</_></rects>
      <tilted>0</tilted></_>
    <_>
      <rects>
        <_>
          9 10 12 18 -1.</_>
        <_>
          13 10 4 18 3.</_></rects>
      <tilted>0</tilted></_>
    <_>
      <rects>
        <_>
          9 17 12 2 -1.</_>
        <_>
          13 17 4 2 3.</_></rects>
      <tilted>0</tilted></_>
    <_>
      <rects>
        <_>
          10 4 2 16 -1.</_>
        <_>
          10 4 1 8 2.</_>
        <_>
          11 12 1 8 2.</_></rects>
      <tilted>0</tilted></_>
    <_>
      <rects>
        <_>
          10 5 21 26 -1.</_>
        <_>
          10 18 21 13 2.</_></rects>
      <tilted>0</tilted></_>
    <_>
      <rects>
        <_>
          10 6 18 10 -1.</_>
        <_>
          10 6 9 5 2.</_>
        <_>
          19 11 9 5 2.</_></rects>
      <tilted>0</tilted></_>
    <_>
      <rects>
        <_>
          10 8 6 8 -1.</_>
        <_>
          10 8 3 4 2.</_>
        <_>
          13 12 3 4 2.</_></rects>
      <tilted>0</tilted></_>
    <_>
      <rects>
        <_>
          10 11 12 18 -1.</_>
        <_>
          14 11 4 18 3.</_></rects>
      <tilted>0</tilted></_>
    <_>
      <rects>
        <_>
          10 11 12 19 -1.</_>
        <_>
          14 11 4 19 3.</_></rects>
      <tilted>0</tilted></_>
    <_>
      <rects>
        <_>
          10 14 12 4 -1.</_>
        <_>
          14 14 4 4 3.</_></rects>
      <tilted>0</tilted></_>
    <_>
      <rects>
        <_>
          10 18 12 12 -1.</_>
        <_>
          14 18 4 12 3.</_></rects>
      <tilted>0</tilted></_>
    <_>
      <rects>
        <_>
          11 0 3 19 -1.</_>
        <_>
          12 0 1 19 3.</_></rects>
      <tilted>0</tilted></_>
    <_>
      <rects>
        <_>
          11 0 9 26 -1.</_>
        <_>
          14 0 3 26 3.</_></rects>
      <tilted>0</tilted></_>
    <_>
      <rects>
        <_>
          11 2 3 29 -1.</_>
        <_>
          12 2 1 29 3.</_></rects>
      <tilted>0</tilted></_>
    <_>
      <rects>
        <_>
          11 3 9 11 -1.</_>
        <_>
          14 3 3 11 3.</_></rects>
      <tilted>0</tilted></_>
    <_>
      <rects>
        <_>
          11 3 9 28 -1.</_>
        <_>
          14 3 3 28 3.</_></rects>
      <tilted>0</tilted></_>
    <_>
      <rects>
        <_>
          11 4 9 9 -1.</_>
        <_>
          14 4 3 9 3.</_></rects>
      <tilted>0</tilted></_>
    <_>
      <rects>
        <_>
          11 10 6 19 -1.</_>
        <_>
          13 10 2 19 3.</_></rects>
      <tilted>0</tilted></_>
    <_>
      <rects>
        <_>
          11 10 9 2 -1.</_>
        <_>
          14 10 3 2 3.</_></rects>
      <tilted>0</tilted></_>
    <_>
      <rects>
        <_>
          11 11 9 20 -1.</_>
        <_>
          14 11 3 20 3.</_></rects>
      <tilted>0</tilted></_>
    <_>
      <rects>
        <_>
          11 12 4 15 -1.</_>
        <_>
          13 12 2 15 2.</_></rects>
      <tilted>0</tilted></_>
    <_>
      <rects>
        <_>
          11 12 12 2 -1.</_>
        <_>
          11 13 12 1 2.</_></rects>
      <tilted>0</tilted></_>
    <_>
      <rects>
        <_>
          11 13 14 16 -1.</_>
        <_>
          11 21 14 8 2.</_></rects>
      <tilted>0</tilted></_>
    <_>
      <rects>
        <_>
          11 20 13 4 -1.</_>
        <_>
          11 22 13 2 2.</_></rects>
      <tilted>0</tilted></_>
    <_>
      <rects>
        <_>
          12 3 9 10 -1.</_>
        <_>
          15 3 3 10 3.</_></rects>
      <tilted>0</tilted></_>
    <_>
      <rects>
        <_>
          12 9 9 19 -1.</_>
        <_>
          15 9 3 19 3.</_></rects>
      <tilted>0</tilted></_>
    <_>
      <rects>
        <_>
          12 11 9 11 -1.</_>
        <_>
          15 11 3 11 3.</_></rects>
      <tilted>0</tilted></_>
    <_>
      <rects>
        <_>
          12 17 9 12 -1.</_>
        <_>
          15 17 3 12 3.</_></rects>
      <tilted>0</tilted></_>
    <_>
      <rects>
        <_>
          12 18 9 11 -1.</_>
        <_>
          15 18 3 11 3.</_></rects>
      <tilted>0</tilted></_>
    <_>
      <rects>
        <_>
          12 27 3 2 -1.</_>
        <_>
          12 28 3 1 2.</_></rects>
      <tilted>0</tilted></_>
    <_>
      <rects>
        <_>
          13 0 3 32 -1.</_>
        <_>
          14 0 1 32 3.</_></rects>
      <tilted>0</tilted></_>
    <_>
      <rects>
        <_>
          14 0 2 28 -1.</_>
        <_>
          14 14 2 14 2.</_></rects>
      <tilted>0</tilted></_>
    <_>
      <rects>
        <_>
          14 6 4 4 -1.</_>
        <_>
          14 6 2 2 2.</_>
        <_>
          16 8 2 2 2.</_></rects>
      <tilted>0</tilted></_>
    <_>
      <rects>
        <_>
          14 7 2 8 -1.</_>
        <_>
          14 11 2 4 2.</_></rects>
      <tilted>0</tilted></_>
    <_>
      <rects>
        <_>
          14 7 6 22 -1.</_>
        <_>
          16 7 2 22 3.</_></rects>
      <tilted>0</tilted></_>
    <_>
      <rects>
        <_>
          14 17 2 5 -1.</_>
        <_>
          15 17 1 5 2.</_></rects>
      <tilted>0</tilted></_>
    <_>
      <rects>
        <_>
          14 17 3 2 -1.</_>
        <_>
          14 18 3 1 2.</_></rects>
      <tilted>0</tilted></_>
    <_>
      <rects>
        <_>
          14 23 2 4 -1.</_>
        <_>
          14 25 2 2 2.</_></rects>
      <tilted>0</tilted></_>
    <_>
      <rects>
        <_>
          14 24 6 4 -1.</_>
        <_>
          16 24 2 4 3.</_></rects>
      <tilted>0</tilted></_>
    <_>
      <rects>
        <_>
          14 30 2 2 -1.</_>
        <_>
          14 31 2 1 2.</_></rects>
      <tilted>0</tilted></_>
    <_>
      <rects>
        <_>
          15 3 3 24 -1.</_>
        <_>
          15 11 3 8 3.</_></rects>
      <tilted>0</tilted></_>
    <_>
      <rects>
        <_>
          15 4 4 14 -1.</_>
        <_>
          15 11 4 7 2.</_></rects>
      <tilted>0</tilted></_>
    <_>
      <rects>
        <_>
          15 6 1 2 -1.</_>
        <_>
          15 7 1 1 2.</_></rects>
      <tilted>0</tilted></_>
    <_>
      <rects>
        <_>
          15 6 2 6 -1.</_>
        <_>
          15 6 1 3 2.</_>
        <_>
          16 9 1 3 2.</_></rects>
      <tilted>0</tilted></_>
    <_>
      <rects>
        <_>
          15 11 1 18 -1.</_>
        <_>
          15 20 1 9 2.</_></rects>
      <tilted>0</tilted></_>
    <_>
      <rects>
        <_>
          15 12 2 8 -1.</_>
        <_>
          15 12 1 4 2.</_>
        <_>
          16 16 1 4 2.</_></rects>
      <tilted>0</tilted></_>
    <_>
      <rects>
        <_>
          15 15 2 4 -1.</_>
        <_>
          15 15 1 2 2.</_>
        <_>
          16 17 1 2 2.</_></rects>
      <tilted>0</tilted></_>
    <_>
      <rects>
        <_>
          15 15 6 4 -1.</_>
        <_>
          18 15 3 4 2.</_></rects>
      <tilted>0</tilted></_>
    <_>
      <rects>
        <_>
          15 15 3 12 -1.</_>
        <_>
          15 21 3 6 2.</_></rects>
      <tilted>0</tilted></_>
    <_>
      <rects>
        <_>
          15 16 1 10 -1.</_>
        <_>
          15 21 1 5 2.</_></rects>
      <tilted>0</tilted></_>
    <_>
      <rects>
        <_>
          15 16 3 15 -1.</_>
        <_>
          15 21 3 5 3.</_></rects>
      <tilted>0</tilted></_>
    <_>
      <rects>
        <_>
          15 17 5 9 -1.</_>
        <_>
          15 20 5 3 3.</_></rects>
      <tilted>0</tilted></_>
    <_>
      <rects>
        <_>
          15 18 17 14 -1.</_>
        <_>
          15 25 17 7 2.</_></rects>
      <tilted>0</tilted></_>
    <_>
      <rects>
        <_>
          15 24 1 6 -1.</_>
        <_>
          15 26 1 2 3.</_></rects>
      <tilted>0</tilted></_>
    <_>
      <rects>
        <_>
          16 3 6 14 -1.</_>
        <_>
          18 3 2 14 3.</_></rects>
      <tilted>0</tilted></_>
    <_>
      <rects>
        <_>
          16 6 10 6 -1.</_>
        <_>
          16 8 10 2 3.</_></rects>
      <tilted>0</tilted></_>
    <_>
      <rects>
        <_>
          16 7 2 14 -1.</_>
        <_>
          16 14 2 7 2.</_></rects>
      <tilted>0</tilted></_>
    <_>
      <rects>
        <_>
          16 10 1 12 -1.</_>
        <_>
          16 14 1 4 3.</_></rects>
      <tilted>0</tilted></_>
    <_>
      <rects>
        <_>
          16 11 1 3 -1.</_>
        <_>
          16 12 1 1 3.</_></rects>
      <tilted>0</tilted></_>
    <_>
      <rects>
        <_>
          16 17 1 2 -1.</_>
        <_>
          16 18 1 1 2.</_></rects>
      <tilted>0</tilted></_>
    <_>
      <rects>
        <_>
          17 0 3 23 -1.</_>
        <_>
          18 0 1 23 3.</_></rects>
      <tilted>0</tilted></_>
    <_>
      <rects>
        <_>
          17 8 3 22 -1.</_>
        <_>
          18 8 1 22 3.</_></rects>
      <tilted>0</tilted></_>
    <_>
      <rects>
        <_>
          17 19 3 11 -1.</_>
        <_>
          18 19 1 11 3.</_></rects>
      <tilted>0</tilted></_>
    <_>
      <rects>
        <_>
          19 14 2 2 -1.</_>
        <_>
          20 14 1 2 2.</_></rects>
      <tilted>0</tilted></_>
    <_>
      <rects>
        <_>
          19 16 12 7 -1.</_>
        <_>
          23 16 4 7 3.</_></rects>
      <tilted>0</tilted></_>
    <_>
      <rects>
        <_>
          21 1 7 2 -1.</_>
        <_>
          21 2 7 1 2.</_></rects>
      <tilted>0</tilted></_>
    <_>
      <rects>
        <_>
          22 15 6 1 -1.</_>
        <_>
          25 15 3 1 2.</_></rects>
      <tilted>0</tilted></_>
    <_>
      <rects>
        <_>
          23 14 6 10 -1.</_>
        <_>
          25 14 2 10 3.</_></rects>
      <tilted>0</tilted></_>
    <_>
      <rects>
        <_>
          24 0 8 31 -1.</_>
        <_>
          28 0 4 31 2.</_></rects>
      <tilted>0</tilted></_>
    <_>
      <rects>
        <_>
          24 15 8 6 -1.</_>
        <_>
          24 18 8 3 2.</_></rects>
      <tilted>0</tilted></_>
    <_>
      <rects>
        <_>
          26 0 2 2 -1.</_>
        <_>
          26 1 2 1 2.</_></rects>
      <tilted>0</tilted></_>
    <_>
      <rects>
        <_>
          26 0 6 25 -1.</_>
        <_>
          29 0 3 25 2.</_></rects>
      <tilted>0</tilted></_>
    <_>
      <rects>
        <_>
          26 27 6 2 -1.</_>
        <_>
          26 28 6 1 2.</_></rects>
      <tilted>0</tilted></_>
    <_>
      <rects>
        <_>
          28 12 4 14 -1.</_>
        <_>
          30 12 2 14 2.</_></rects>
      <tilted>0</tilted></_>
    <_>
      <rects>
        <_>
          28 19 2 5 -1.</_>
        <_>
          29 19 1 5 2.</_></rects>
      <tilted>0</tilted></_></features></cascade>
</opencv_storage>
